SkillSpector Linear Data.

Create Date 2/15/2019
Time 18:16:35

Joelho - X pos	Joelho - Y pos	Quadril - X pos	Quadril - Y pos	C7 - X pos	C7 - Y pos	Barra - X pos	Barra - Y pos	
-0.697	16.055	34.009	10.323	84.028	1.306	9.911	-17.145	
-0.713	16.055	34.001	10.300	83.985	1.318	9.851	-17.177	
-0.729	16.055	33.993	10.282	83.947	1.331	9.797	-17.206	
-0.744	16.055	33.986	10.269	83.916	1.345	9.747	-17.230	
-0.758	16.055	33.979	10.260	83.890	1.360	9.702	-17.250	
-0.772	16.055	33.973	10.257	83.869	1.377	9.662	-17.266	
-0.785	16.055	33.967	10.259	83.854	1.395	9.627	-17.278	
-0.798	16.055	33.960	10.267	83.843	1.415	9.597	-17.288	
-0.811	16.055	33.954	10.279	83.837	1.437	9.571	-17.295	
-0.823	16.055	33.948	10.296	83.834	1.461	9.549	-17.299	
-0.834	16.055	33.941	10.316	83.835	1.489	9.532	-17.301	
-0.845	16.055	33.935	10.341	83.838	1.520	9.517	-17.302	
-0.855	16.055	33.928	10.367	83.843	1.555	9.507	-17.301	
-0.865	16.054	33.920	10.396	83.849	1.592	9.499	-17.300	
-0.874	16.054	33.912	10.425	83.855	1.633	9.493	-17.298	
-0.883	16.054	33.903	10.455	83.861	1.676	9.490	-17.296	
-0.891	16.054	33.894	10.485	83.867	1.722	9.489	-17.293	
-0.899	16.054	33.884	10.515	83.872	1.770	9.489	-17.291	
-0.906	16.054	33.874	10.545	83.876	1.820	9.490	-17.289	
-0.913	16.054	33.864	10.575	83.879	1.872	9.493	-17.287	
-0.919	16.054	33.853	10.605	83.881	1.925	9.496	-17.286	
-0.925	16.054	33.842	10.636	83.882	1.979	9.499	-17.284	
-0.930	16.054	33.831	10.667	83.882	2.034	9.503	-17.284	
-0.935	16.054	33.820	10.698	83.882	2.088	9.506	-17.283	
-0.939	16.054	33.809	10.729	83.882	2.144	9.510	-17.283	
-0.942	16.054	33.799	10.759	83.882	2.199	9.513	-17.283	
-0.945	16.054	33.790	10.788	83.882	2.254	9.516	-17.283	
-0.948	16.054	33.782	10.814	83.882	2.309	9.519	-17.283	
-0.950	16.054	33.775	10.838	83.882	2.363	9.521	-17.284	
-0.951	16.053	33.768	10.859	83.883	2.417	9.523	-17.284	
-0.953	16.053	33.763	10.877	83.885	2.470	9.524	-17.285	
-0.953	16.053	33.760	10.892	83.887	2.522	9.525	-17.285	
-0.953	16.053	33.757	10.903	83.890	2.574	9.526	-17.286	
-0.953	16.053	33.757	10.911	83.895	2.624	9.527	-17.286	
-0.953	16.053	33.757	10.917	83.900	2.673	9.527	-17.286	
-0.952	16.053	33.759	10.920	83.907	2.721	9.527	-17.287	
-0.950	16.053	33.762	10.922	83.915	2.767	9.526	-17.287	
-0.949	16.053	33.767	10.922	83.924	2.812	9.526	-17.287	
-0.947	16.053	33.773	10.921	83.934	2.855	9.525	-17.287	
-0.945	16.053	33.780	10.919	83.945	2.896	9.525	-17.287	
-0.943	16.053	33.789	10.917	83.957	2.935	9.524	-17.287	
-0.941	16.054	33.798	10.914	83.970	2.972	9.524	-17.287	
-0.938	16.054	33.808	10.911	83.983	3.007	9.523	-17.287	
-0.936	16.054	33.820	10.909	83.997	3.040	9.522	-17.287	
-0.933	16.054	33.831	10.906	84.010	3.071	9.522	-17.287	
-0.931	16.054	33.843	10.903	84.024	3.101	9.521	-17.287	
-0.929	16.054	33.855	10.900	84.037	3.128	9.521	-17.287	
-0.926	16.054	33.867	10.898	84.050	3.155	9.521	-17.287	
-0.924	16.054	33.879	10.895	84.063	3.180	9.520	-17.287	
-0.923	16.054	33.890	10.893	84.076	3.204	9.520	-17.286	
-0.921	16.054	33.901	10.892	84.088	3.228	9.520	-17.286	
-0.920	16.054	33.911	10.891	84.101	3.253	9.520	-17.286	
-0.919	16.054	33.920	10.891	84.113	3.280	9.520	-17.286	
-0.919	16.054	33.929	10.892	84.125	3.308	9.520	-17.286	
-0.919	16.054	33.936	10.895	84.137	3.340	9.520	-17.286	
-0.920	16.054	33.943	10.900	84.149	3.374	9.520	-17.286	
-0.921	16.054	33.949	10.907	84.160	3.413	9.520	-17.286	
-0.922	16.054	33.953	10.917	84.171	3.455	9.519	-17.286	
-0.924	16.054	33.957	10.929	84.182	3.503	9.519	-17.286	
-0.927	16.054	33.959	10.944	84.192	3.555	9.519	-17.286	
-0.930	16.054	33.961	10.962	84.201	3.612	9.519	-17.286	
-0.934	16.054	33.961	10.983	84.211	3.674	9.519	-17.286	
-0.938	16.054	33.960	11.006	84.220	3.741	9.518	-17.286	
-0.943	16.054	33.959	11.031	84.230	3.812	9.518	-17.286	
-0.948	16.054	33.956	11.058	84.239	3.887	9.517	-17.286	
-0.954	16.054	33.951	11.085	84.250	3.967	9.517	-17.286	
-0.960	16.054	33.946	11.113	84.261	4.050	9.516	-17.286	
-0.966	16.054	33.939	11.141	84.273	4.136	9.515	-17.286	
-0.973	16.054	33.931	11.169	84.286	4.226	9.515	-17.286	
-0.980	16.054	33.922	11.196	84.300	4.320	9.514	-17.286	
-0.988	16.054	33.912	11.222	84.315	4.417	9.514	-17.287	
-0.996	16.054	33.900	11.248	84.331	4.519	9.514	-17.287	
-1.004	16.053	33.888	11.274	84.347	4.624	9.514	-17.287	
-1.012	16.053	33.874	11.300	84.364	4.735	9.514	-17.287	
-1.020	16.053	33.860	11.327	84.381	4.851	9.514	-17.287	
-1.028	16.053	33.844	11.353	84.398	4.972	9.515	-17.287	
-1.037	16.053	33.828	11.380	84.415	5.100	9.517	-17.287	
-1.045	16.053	33.811	11.407	84.432	5.234	9.519	-17.287	
-1.053	16.053	33.794	11.433	84.449	5.375	9.521	-17.287	
-1.062	16.053	33.777	11.459	84.465	5.523	9.524	-17.287	
-1.070	16.053	33.759	11.484	84.481	5.679	9.527	-17.287	
-1.077	16.053	33.742	11.507	84.496	5.842	9.531	-17.287	
-1.085	16.053	33.724	11.529	84.511	6.013	9.536	-17.287	
-1.092	16.053	33.708	11.549	84.525	6.191	9.541	-17.286	
-1.099	16.052	33.691	11.568	84.539	6.374	9.547	-17.286	
-1.106	16.052	33.676	11.586	84.553	6.564	9.554	-17.286	
-1.112	16.052	33.661	11.604	84.568	6.758	9.561	-17.286	
-1.118	16.052	33.648	11.624	84.582	6.955	9.568	-17.286	
-1.124	16.052	33.636	11.646	84.597	7.154	9.576	-17.285	
-1.129	16.052	33.625	11.671	84.613	7.355	9.584	-17.285	
-1.134	16.052	33.616	11.701	84.628	7.556	9.592	-17.285	
-1.139	16.052	33.608	11.736	84.645	7.756	9.601	-17.284	
-1.143	16.052	33.602	11.776	84.661	7.954	9.609	-17.284	
-1.147	16.052	33.598	11.823	84.678	8.149	9.618	-17.284	
-1.150	16.052	33.595	11.875	84.695	8.343	9.626	-17.284	
-1.153	16.052	33.594	11.934	84.713	8.533	9.635	-17.284	
-1.156	16.052	33.595	11.998	84.730	8.721	9.644	-17.285	
-1.158	16.052	33.597	12.067	84.747	8.908	9.653	-17.285	
-1.160	16.052	33.600	12.142	84.763	9.092	9.663	-17.286	
-1.162	16.052	33.605	12.220	84.779	9.276	9.674	-17.287	
-1.163	16.052	33.610	12.301	84.794	9.460	9.685	-17.288	
-1.165	16.052	33.617	12.385	84.808	9.645	9.698	-17.289	
-1.166	16.052	33.624	12.470	84.821	9.831	9.712	-17.291	
-1.167	16.052	33.632	12.555	84.832	10.021	9.728	-17.292	
-1.168	16.052	33.640	12.639	84.842	10.214	9.745	-17.294	
-1.168	16.052	33.648	12.721	84.850	10.411	9.765	-17.295	
-1.169	16.052	33.656	12.800	84.857	10.614	9.786	-17.296	
-1.169	16.052	33.665	12.876	84.861	10.822	9.810	-17.296	
-1.170	16.052	33.673	12.947	84.864	11.036	9.835	-17.296	
-1.170	16.052	33.681	13.015	84.865	11.256	9.863	-17.295	
-1.171	16.052	33.689	13.078	84.863	11.481	9.892	-17.293	
-1.172	16.052	33.696	13.137	84.859	11.711	9.922	-17.289	
-1.173	16.052	33.703	13.193	84.854	11.946	9.954	-17.284	
-1.173	16.052	33.710	13.245	84.847	12.185	9.987	-17.278	
-1.175	16.052	33.717	13.295	84.838	12.427	10.020	-17.269	
-1.176	16.052	33.723	13.343	84.828	12.672	10.054	-17.259	
-1.178	16.052	33.728	13.391	84.817	12.919	10.088	-17.247	
-1.179	16.052	33.733	13.438	84.806	13.167	10.121	-17.234	
-1.181	16.052	33.738	13.487	84.794	13.415	10.155	-17.219	
-1.184	16.052	33.742	13.537	84.783	13.662	10.187	-17.203	
-1.187	16.052	33.745	13.591	84.771	13.908	10.219	-17.186	
-1.190	16.052	33.748	13.647	84.761	14.153	10.250	-17.168	
-1.193	16.052	33.749	13.706	84.751	14.394	10.280	-17.151	
-1.197	16.052	33.751	13.768	84.742	14.633	10.309	-17.133	
-1.201	16.052	33.751	13.833	84.734	14.869	10.338	-17.116	
-1.206	16.052	33.750	13.901	84.726	15.100	10.365	-17.099	
-1.211	16.052	33.749	13.971	84.719	15.328	10.390	-17.083	
-1.216	16.052	33.747	14.042	84.712	15.552	10.415	-17.068	
-1.222	16.052	33.744	14.115	84.706	15.772	10.438	-17.053	
-1.228	16.052	33.740	14.188	84.701	15.987	10.459	-17.038	
-1.234	16.052	33.735	14.260	84.696	16.198	10.479	-17.024	
-1.241	16.052	33.729	14.332	84.691	16.404	10.497	-17.011	
-1.248	16.052	33.722	14.403	84.687	16.606	10.514	-16.999	
-1.256	16.052	33.715	14.472	84.683	16.803	10.529	-16.987	
-1.263	16.052	33.707	14.540	84.679	16.997	10.542	-16.976	
-1.271	16.052	33.698	14.605	84.676	17.186	10.554	-16.966	
-1.280	16.052	33.688	14.668	84.672	17.372	10.565	-16.957	
-1.288	16.052	33.678	14.730	84.669	17.556	10.575	-16.949	
-1.297	16.052	33.668	14.789	84.665	17.737	10.584	-16.941	
-1.306	16.052	33.657	14.846	84.660	17.917	10.592	-16.935	
-1.315	16.052	33.647	14.902	84.654	18.096	10.600	-16.930	
-1.324	16.052	33.636	14.956	84.647	18.275	10.608	-16.925	
-1.333	16.051	33.625	15.010	84.638	18.455	10.616	-16.922	
-1.342	16.051	33.615	15.063	84.627	18.635	10.624	-16.920	
-1.351	16.051	33.605	15.116	84.613	18.818	10.633	-16.919	
-1.361	16.051	33.596	15.168	84.598	19.002	10.642	-16.918	
-1.370	16.051	33.588	15.220	84.579	19.189	10.652	-16.918	
-1.379	16.051	33.580	15.272	84.557	19.379	10.663	-16.919	
-1.387	16.051	33.573	15.323	84.533	19.572	10.675	-16.920	
-1.396	16.051	33.567	15.374	84.505	19.768	10.687	-16.922	
-1.405	16.051	33.561	15.425	84.476	19.967	10.701	-16.923	
-1.413	16.051	33.557	15.476	84.443	20.167	10.715	-16.925	
-1.421	16.051	33.553	15.527	84.409	20.370	10.729	-16.927	
-1.428	16.051	33.550	15.578	84.374	20.574	10.745	-16.928	
-1.436	16.051	33.547	15.631	84.338	20.778	10.760	-16.929	
-1.443	16.051	33.546	15.684	84.301	20.983	10.776	-16.929	
-1.450	16.051	33.545	15.739	84.264	21.186	10.793	-16.928	
-1.456	16.050	33.544	15.794	84.228	21.389	10.809	-16.927	
-1.462	16.050	33.544	15.851	84.192	21.591	10.826	-16.924	
-1.468	16.050	33.545	15.907	84.156	21.792	10.842	-16.920	
-1.473	16.050	33.545	15.964	84.121	21.991	10.859	-16.914	
-1.478	16.050	33.546	16.021	84.087	22.190	10.876	-16.907	
-1.482	16.050	33.548	16.078	84.053	22.388	10.893	-16.899	
-1.486	16.050	33.549	16.134	84.019	22.586	10.910	-16.889	
-1.490	16.050	33.550	16.190	83.984	22.785	10.928	-16.878	
-1.494	16.050	33.551	16.245	83.950	22.985	10.945	-16.866	
-1.497	16.050	33.552	16.301	83.914	23.187	10.963	-16.854	
-1.500	16.050	33.553	16.356	83.876	23.390	10.982	-16.840	
-1.502	16.050	33.554	16.412	83.837	23.596	11.001	-16.827	
-1.504	16.050	33.554	16.469	83.796	23.803	11.021	-16.813	
-1.506	16.050	33.554	16.526	83.752	24.013	11.041	-16.800	
-1.508	16.050	33.553	16.584	83.705	24.225	11.062	-16.788	
-1.510	16.050	33.552	16.642	83.655	24.438	11.083	-16.776	
-1.511	16.050	33.551	16.702	83.602	24.652	11.105	-16.764	
-1.513	16.050	33.548	16.762	83.546	24.867	11.128	-16.753	
-1.514	16.050	33.545	16.822	83.487	25.083	11.150	-16.743	
-1.515	16.050	33.541	16.883	83.425	25.299	11.173	-16.732	
-1.516	16.050	33.537	16.943	83.361	25.516	11.196	-16.722	
-1.517	16.050	33.531	17.001	83.296	25.731	11.219	-16.712	
-1.519	16.050	33.525	17.058	83.229	25.945	11.242	-16.702	
-1.520	16.050	33.518	17.113	83.162	26.157	11.265	-16.692	
-1.521	16.050	33.511	17.166	83.095	26.367	11.288	-16.682	
-1.523	16.050	33.502	17.217	83.028	26.574	11.311	-16.673	
-1.524	16.050	33.493	17.267	82.963	26.778	11.334	-16.664	
-1.526	16.050	33.484	17.316	82.898	26.978	11.357	-16.655	
-1.528	16.050	33.474	17.366	82.836	27.175	11.379	-16.646	
-1.531	16.050	33.463	17.416	82.775	27.367	11.402	-16.638	
-1.533	16.050	33.452	17.469	82.717	27.557	11.425	-16.630	
-1.536	16.050	33.441	17.524	82.661	27.743	11.447	-16.621	
-1.540	16.050	33.429	17.582	82.608	27.926	11.468	-16.613	
-1.543	16.050	33.417	17.643	82.557	28.107	11.490	-16.605	
-1.547	16.050	33.405	17.708	82.508	28.285	11.510	-16.597	
-1.552	16.050	33.393	17.776	82.461	28.462	11.530	-16.589	
-1.557	16.050	33.381	17.846	82.417	28.638	11.549	-16.582	
-1.562	16.050	33.369	17.919	82.374	28.813	11.567	-16.575	
-1.567	16.050	33.357	17.994	82.332	28.988	11.584	-16.570	
-1.573	16.050	33.345	18.070	82.292	29.163	11.600	-16.565	
-1.580	16.050	33.333	18.147	82.252	29.338	11.615	-16.561	
-1.586	16.050	33.321	18.224	82.212	29.513	11.630	-16.558	
-1.594	16.050	33.309	18.301	82.173	29.689	11.644	-16.555	
-1.601	16.050	33.298	18.376	82.133	29.865	11.658	-16.554	
-1.609	16.050	33.286	18.451	82.092	30.042	11.672	-16.553	
-1.617	16.050	33.275	18.524	82.051	30.220	11.686	-16.552	
-1.626	16.050	33.264	18.595	82.009	30.399	11.700	-16.552	
-1.634	16.050	33.254	18.664	81.966	30.578	11.715	-16.552	
-1.643	16.050	33.244	18.731	81.922	30.758	11.730	-16.552	
-1.653	16.050	33.235	18.796	81.878	30.938	11.746	-16.553	
-1.662	16.050	33.227	18.858	81.834	31.118	11.762	-16.554	
-1.672	16.049	33.219	18.919	81.789	31.298	11.779	-16.554	
-1.681	16.049	33.212	18.977	81.745	31.478	11.796	-16.555	
-1.691	16.049	33.205	19.032	81.701	31.657	11.814	-16.555	
-1.701	16.049	33.199	19.085	81.658	31.835	11.832	-16.556	
-1.711	16.049	33.193	19.136	81.615	32.011	11.850	-16.556	
-1.721	16.049	33.188	19.183	81.573	32.185	11.868	-16.557	
-1.730	16.049	33.183	19.228	81.532	32.356	11.886	-16.557	
-1.740	16.049	33.178	19.269	81.492	32.524	11.903	-16.557	
-1.750	16.049	33.173	19.307	81.452	32.689	11.919	-16.557	
-1.759	16.049	33.168	19.342	81.412	32.850	11.935	-16.557	
-1.768	16.049	33.163	19.373	81.373	33.007	11.950	-16.557	
-1.777	16.048	33.158	19.401	81.334	33.160	11.963	-16.557	
-1.785	16.048	33.152	19.426	81.294	33.308	11.975	-16.557	
-1.794	16.048	33.145	19.448	81.255	33.452	11.986	-16.557	
-1.802	16.048	33.138	19.469	81.217	33.592	11.995	-16.557	
-1.809	16.048	33.130	19.489	81.178	33.728	12.003	-16.557	
-1.817	16.048	33.121	19.509	81.140	33.861	12.010	-16.556	
-1.824	16.048	33.112	19.530	81.102	33.989	12.015	-16.556	
-1.830	16.048	33.102	19.552	81.064	34.114	12.019	-16.556	
-1.837	16.048	33.091	19.575	81.028	34.234	12.022	-16.556	
-1.842	16.048	33.080	19.599	80.991	34.352	12.023	-16.556	
-1.848	16.048	33.068	19.625	80.956	34.465	12.024	-16.556	
-1.853	16.048	33.056	19.651	80.922	34.574	12.024	-16.556	
-1.858	16.048	33.043	19.677	80.888	34.680	12.023	-16.556	
-1.862	16.048	33.030	19.704	80.856	34.782	12.022	-16.556	
-1.866	16.048	33.017	19.729	80.825	34.880	12.020	-16.556	
-1.869	16.048	33.004	19.755	80.795	34.974	12.017	-16.556	
-1.872	16.048	32.990	19.780	80.767	35.066	12.014	-16.556	
-1.875	16.048	32.977	19.806	80.740	35.154	12.011	-16.556	
-1.878	16.048	32.963	19.833	80.714	35.240	12.008	-16.555	
-1.880	16.048	32.950	19.861	80.688	35.324	12.004	-16.555	
-1.882	16.048	32.936	19.891	80.663	35.406	12.001	-16.555	
-1.883	16.048	32.923	19.923	80.637	35.488	11.998	-16.555	
-1.885	16.048	32.910	19.959	80.612	35.570	11.995	-16.555	
-1.886	16.048	32.897	19.997	80.586	35.652	11.993	-16.554	
-1.887	16.048	32.886	20.037	80.559	35.735	11.991	-16.554	
-1.887	16.048	32.874	20.080	80.532	35.819	11.990	-16.554	
-1.888	16.048	32.864	20.124	80.503	35.903	11.990	-16.554	
-1.888	16.048	32.854	20.169	80.474	35.990	11.991	-16.555	
-1.888	16.048	32.845	20.214	80.443	36.077	11.993	-16.555	
-1.888	16.048	32.838	20.260	80.411	36.167	11.995	-16.556	
-1.887	16.048	32.831	20.305	80.378	36.259	12.000	-16.556	
-1.887	16.048	32.825	20.350	80.343	36.353	12.005	-16.557	
-1.886	16.048	32.821	20.394	80.308	36.450	12.013	-16.558	
-1.886	16.048	32.817	20.438	80.270	36.550	12.021	-16.560	
-1.885	16.048	32.814	20.481	80.231	36.654	12.032	-16.561	
-1.884	16.048	32.813	20.524	80.190	36.761	12.044	-16.562	
-1.883	16.048	32.812	20.568	80.147	36.872	12.057	-16.563	
-1.882	16.048	32.811	20.613	80.103	36.986	12.072	-16.564	
-1.881	16.048	32.812	20.659	80.056	37.105	12.089	-16.565	
-1.880	16.048	32.812	20.706	80.007	37.229	12.107	-16.565	
-1.879	16.048	32.814	20.754	79.956	37.357	12.125	-16.565	
-1.878	16.048	32.815	20.805	79.902	37.489	12.145	-16.563	
-1.876	16.048	32.817	20.856	79.846	37.626	12.165	-16.561	
-1.875	16.048	32.818	20.909	79.788	37.769	12.185	-16.557	
-1.874	16.048	32.819	20.962	79.727	37.916	12.205	-16.552	
-1.873	16.048	32.820	21.017	79.664	38.067	12.224	-16.546	
-1.872	16.048	32.821	21.072	79.599	38.224	12.243	-16.538	
-1.870	16.048	32.821	21.127	79.533	38.384	12.261	-16.529	
-1.869	16.048	32.820	21.183	79.466	38.549	12.279	-16.519	
-1.868	16.048	32.819	21.240	79.398	38.716	12.295	-16.507	
-1.867	16.048	32.816	21.297	79.330	38.886	12.311	-16.495	
-1.866	16.048	32.813	21.355	79.262	39.057	12.326	-16.481	
-1.865	16.048	32.808	21.414	79.193	39.230	12.340	-16.468	
-1.864	16.048	32.802	21.474	79.125	39.403	12.354	-16.455	
-1.863	16.048	32.794	21.535	79.057	39.575	12.367	-16.442	
-1.862	16.048	32.786	21.598	78.988	39.747	12.381	-16.430	
-1.861	16.048	32.775	21.661	78.920	39.918	12.394	-16.419	
-1.860	16.048	32.764	21.725	78.852	40.087	12.408	-16.410	
-1.859	16.048	32.751	21.789	78.784	40.254	12.423	-16.401	
-1.858	16.048	32.737	21.853	78.715	40.419	12.438	-16.394	
-1.857	16.048	32.722	21.917	78.646	40.582	12.454	-16.387	
-1.857	16.048	32.707	21.981	78.576	40.743	12.471	-16.382	
-1.856	16.048	32.690	22.044	78.505	40.903	12.489	-16.376	
-1.856	16.048	32.673	22.106	78.434	41.060	12.507	-16.370	
-1.855	16.048	32.655	22.167	78.361	41.217	12.526	-16.365	
-1.855	16.048	32.638	22.227	78.287	41.372	12.544	-16.358	
-1.855	16.048	32.620	22.285	78.213	41.528	12.563	-16.351	
-1.855	16.048	32.603	22.342	78.137	41.683	12.581	-16.344	
-1.855	16.048	32.586	22.397	78.060	41.840	12.599	-16.336	
-1.855	16.048	32.570	22.450	77.982	41.997	12.616	-16.327	
-1.856	16.048	32.555	22.501	77.903	42.156	12.631	-16.319	
-1.856	16.048	32.540	22.551	77.824	42.316	12.646	-16.312	
-1.857	16.048	32.527	22.598	77.745	42.478	12.658	-16.305	
-1.858	16.048	32.514	22.644	77.665	42.642	12.670	-16.300	
-1.859	16.048	32.503	22.689	77.586	42.806	12.680	-16.297	
-1.860	16.048	32.493	22.733	77.506	42.973	12.688	-16.297	
-1.861	16.048	32.484	22.777	77.427	43.139	12.695	-16.298	
-1.863	16.048	32.476	22.820	77.348	43.307	12.701	-16.302	
-1.865	16.048	32.469	22.863	77.270	43.474	12.707	-16.308	
-1.867	16.048	32.463	22.906	77.192	43.641	12.711	-16.316	
-1.869	16.048	32.457	22.949	77.115	43.807	12.716	-16.324	
-1.872	16.048	32.451	22.993	77.039	43.972	12.720	-16.333	
-1.875	16.048	32.446	23.038	76.963	44.135	12.724	-16.341	
-1.878	16.048	32.440	23.083	76.887	44.296	12.730	-16.349	
-1.881	16.048	32.434	23.129	76.812	44.455	12.735	-16.355	
-1.885	16.049	32.428	23.176	76.736	44.612	12.742	-16.359	
-1.889	16.049	32.420	23.225	76.661	44.767	12.751	-16.360	
-1.893	16.049	32.412	23.274	76.585	44.920	12.760	-16.360	
-1.898	16.049	32.402	23.323	76.510	45.072	12.772	-16.356	
-1.902	16.049	32.392	23.373	76.433	45.223	12.784	-16.351	
-1.907	16.049	32.380	23.424	76.357	45.373	12.799	-16.342	
-1.913	16.049	32.367	23.474	76.280	45.523	12.815	-16.331	
-1.918	16.049	32.353	23.524	76.202	45.674	12.832	-16.319	
-1.924	16.049	32.337	23.574	76.124	45.825	12.851	-16.305	
-1.930	16.049	32.321	23.623	76.046	45.976	12.870	-16.290	
-1.936	16.049	32.303	23.671	75.967	46.128	12.890	-16.274	
-1.943	16.049	32.285	23.719	75.888	46.279	12.910	-16.259	
-1.950	16.049	32.266	23.765	75.809	46.431	12.930	-16.245	
-1.956	16.049	32.247	23.811	75.730	46.582	12.949	-16.231	
-1.963	16.048	32.228	23.857	75.651	46.733	12.968	-16.219	
-1.971	16.048	32.208	23.903	75.572	46.883	12.985	-16.209	
-1.978	16.048	32.189	23.949	75.494	47.032	13.001	-16.200	
-1.985	16.047	32.170	23.996	75.417	47.180	13.016	-16.193	
-1.993	16.047	32.152	24.044	75.340	47.328	13.029	-16.187	
-2.000	16.046	32.133	24.095	75.264	47.475	13.040	-16.184	
-2.008	16.046	32.115	24.148	75.188	47.623	13.049	-16.181	
-2.015	16.045	32.098	24.206	75.113	47.771	13.057	-16.180	
-2.023	16.044	32.081	24.268	75.039	47.921	13.063	-16.179	
-2.031	16.044	32.063	24.334	74.966	48.072	13.067	-16.180	
-2.038	16.043	32.046	24.405	74.892	48.224	13.071	-16.181	
-2.046	16.042	32.029	24.481	74.819	48.379	13.074	-16.182	
-2.054	16.042	32.012	24.560	74.746	48.536	13.076	-16.184	
-2.061	16.041	31.995	24.643	74.671	48.696	13.077	-16.186	
-2.069	16.041	31.977	24.729	74.596	48.859	13.079	-16.187	
-2.076	16.041	31.959	24.818	74.519	49.026	13.081	-16.189	
-2.083	16.041	31.941	24.908	74.439	49.196	13.083	-16.190	
-2.090	16.041	31.922	24.999	74.356	49.371	13.086	-16.191	
-2.097	16.042	31.903	25.091	74.269	49.551	13.090	-16.192	
-2.104	16.043	31.883	25.182	74.178	49.736	13.095	-16.193	
-2.111	16.045	31.862	25.272	74.082	49.927	13.102	-16.193	
-2.117	16.046	31.841	25.362	73.980	50.125	13.110	-16.193	
-2.123	16.049	31.819	25.449	73.872	50.330	13.120	-16.194	
-2.129	16.052	31.796	25.535	73.758	50.543	13.132	-16.193	
-2.135	16.056	31.772	25.618	73.637	50.764	13.145	-16.193	
-2.141	16.060	31.746	25.699	73.510	50.993	13.160	-16.193	
-2.146	16.064	31.720	25.778	73.376	51.229	13.177	-16.193	
-2.151	16.070	31.692	25.854	73.236	51.474	13.194	-16.192	
-2.156	16.076	31.664	25.929	73.090	51.725	13.213	-16.192	
-2.161	16.082	31.634	26.001	72.938	51.983	13.232	-16.191	
-2.165	16.088	31.602	26.072	72.782	52.246	13.252	-16.191	
-2.169	16.095	31.570	26.141	72.622	52.513	13.271	-16.190	
-2.173	16.103	31.536	26.210	72.458	52.784	13.291	-16.190	
-2.177	16.110	31.501	26.277	72.292	53.056	13.310	-16.189	
-2.180	16.117	31.465	26.345	72.125	53.330	13.328	-16.189	
-2.184	16.125	31.428	26.412	71.957	53.604	13.346	-16.189	
-2.187	16.132	31.390	26.480	71.788	53.876	13.363	-16.189	
-2.190	16.139	31.352	26.548	71.621	54.147	13.379	-16.188	
-2.192	16.146	31.313	26.618	71.454	54.415	13.394	-16.188	
-2.195	16.153	31.274	26.690	71.289	54.680	13.408	-16.189	
-2.197	16.159	31.235	26.764	71.125	54.941	13.422	-16.189	
-2.200	16.165	31.195	26.840	70.963	55.199	13.435	-16.189	
-2.202	16.172	31.156	26.920	70.803	55.454	13.448	-16.190	
-2.204	16.177	31.116	27.003	70.643	55.705	13.460	-16.191	
-2.206	16.183	31.076	27.090	70.484	55.952	13.473	-16.192	
-2.208	16.188	31.036	27.180	70.326	56.198	13.486	-16.193	
-2.210	16.193	30.996	27.273	70.168	56.440	13.499	-16.194	
-2.212	16.198	30.956	27.369	70.010	56.681	13.512	-16.195	
-2.215	16.202	30.916	27.467	69.851	56.921	13.526	-16.197	
-2.217	16.206	30.876	27.567	69.691	57.160	13.541	-16.198	
-2.219	16.210	30.836	27.669	69.531	57.400	13.556	-16.198	
-2.222	16.213	30.796	27.772	69.369	57.639	13.571	-16.198	
-2.224	16.215	30.755	27.877	69.206	57.880	13.587	-16.198	
-2.227	16.217	30.714	27.983	69.042	58.122	13.603	-16.197	
-2.230	16.219	30.672	28.091	68.876	58.367	13.619	-16.195	
-2.233	16.221	30.630	28.201	68.708	58.614	13.636	-16.192	
-2.236	16.222	30.587	28.314	68.538	58.864	13.652	-16.187	
-2.239	16.224	30.543	28.429	68.365	59.117	13.669	-16.181	
-2.243	16.225	30.499	28.547	68.189	59.375	13.686	-16.174	
-2.246	16.225	30.453	28.667	68.009	59.637	13.703	-16.165	
-2.250	16.226	30.407	28.790	67.825	59.904	13.720	-16.154	
-2.254	16.227	30.359	28.914	67.636	60.175	13.738	-16.142	
-2.258	16.228	30.311	29.040	67.440	60.452	13.757	-16.128	
-2.262	16.229	30.262	29.167	67.239	60.734	13.777	-16.113	
-2.266	16.230	30.212	29.294	67.030	61.021	13.798	-16.097	
-2.270	16.231	30.162	29.420	66.814	61.313	13.820	-16.080	
-2.274	16.232	30.111	29.547	66.591	61.610	13.844	-16.062	
-2.278	16.233	30.061	29.672	66.359	61.911	13.869	-16.044	
-2.282	16.235	30.010	29.797	66.120	62.216	13.896	-16.025	
-2.285	16.236	29.959	29.920	65.873	62.525	13.924	-16.005	
-2.288	16.237	29.909	30.042	65.618	62.836	13.954	-15.984	
-2.291	16.238	29.860	30.163	65.357	63.150	13.984	-15.963	
-2.294	16.239	29.811	30.282	65.089	63.464	14.015	-15.942	
-2.296	16.240	29.763	30.400	64.817	63.779	14.046	-15.921	
-2.297	16.240	29.716	30.517	64.540	64.094	14.076	-15.900	
-2.298	16.240	29.669	30.632	64.260	64.408	14.104	-15.879	
-2.298	16.239	29.623	30.745	63.979	64.720	14.130	-15.859	
-2.297	16.237	29.578	30.857	63.698	65.031	14.152	-15.841	
-2.294	16.235	29.532	30.968	63.419	65.339	14.171	-15.825	
-2.291	16.231	29.486	31.078	63.142	65.644	14.184	-15.812	
-2.287	16.227	29.439	31.189	62.869	65.946	14.192	-15.802	
-2.281	16.221	29.390	31.301	62.601	66.246	14.192	-15.796	
-2.274	16.214	29.338	31.415	62.340	66.543	14.186	-15.794	
-2.265	16.206	29.282	31.534	62.084	66.840	14.171	-15.798	
-2.255	16.197	29.221	31.660	61.835	67.138	14.146	-15.807	
-2.242	16.187	29.153	31.795	61.592	67.439	14.112	-15.823	
-2.228	16.175	29.076	31.943	61.353	67.747	14.068	-15.845	
-2.212	16.163	28.989	32.106	61.116	68.064	14.013	-15.875	
-2.193	16.150	28.889	32.289	60.879	68.394	13.948	-15.913	
-2.172	16.136	28.775	32.495	60.637	68.742	13.872	-15.958	
-2.149	16.122	28.643	32.728	60.387	69.113	13.785	-16.011	
-2.123	16.109	28.492	32.990	60.123	69.512	13.688	-16.072	
-2.095	16.096	28.318	33.285	59.838	69.943	13.581	-16.139	
-2.064	16.084	28.119	33.617	59.525	70.413	13.466	-16.213	
-2.030	16.074	27.892	33.989	59.176	70.926	13.343	-16.292	
-1.993	16.066	27.634	34.403	58.783	71.487	13.213	-16.375	
-1.953	16.060	27.342	34.861	58.336	72.102	13.079	-16.460	
-1.910	16.057	27.015	35.365	57.825	72.776	12.942	-16.546	
-1.864	16.057	26.649	35.917	57.242	73.512	12.803	-16.631	
-1.814	16.060	26.242	36.517	56.576	74.314	12.665	-16.714	
-1.762	16.068	25.792	37.164	55.818	75.186	12.529	-16.793	
-1.706	16.081	25.297	37.858	54.960	76.131	12.398	-16.866	
-1.647	16.097	24.755	38.597	53.994	77.149	12.273	-16.931	
-1.584	16.119	24.164	39.378	52.912	78.244	12.156	-16.989	
-1.518	16.146	23.525	40.201	51.708	79.415	12.048	-17.038	
-1.449	16.178	22.834	41.062	50.378	80.663	11.950	-17.078	
-1.376	16.216	22.093	41.960	48.919	81.990	11.864	-17.108	
-1.300	16.259	21.300	42.894	47.326	83.393	11.790	-17.129	
-1.221	16.308	20.454	43.861	45.599	84.874	11.728	-17.140	
-1.138	16.362	19.557	44.860	43.737	86.431	11.680	-17.141	
-1.052	16.421	18.608	45.892	41.739	88.065	11.644	-17.132	
-0.962	16.487	17.606	46.954	39.605	89.775	11.622	-17.114	
-0.869	16.557	16.552	48.049	37.335	91.560	11.613	-17.086	
