SkillSpector Linear Data.

Create Date 2/15/2019
Time 18:8:47

Joelho - X pos	Joelho - Y pos	Quadril - X pos	Quadril - Y pos	C7 - X pos	C7 - Y pos	Barra - X pos	Barra - Y pos	
-1.633	16.352	33.502	10.784	85.151	2.678	10.396	-16.004	
-1.638	16.352	33.468	10.861	85.153	2.803	10.397	-15.978	
-1.643	16.352	33.437	10.934	85.156	2.928	10.398	-15.959	
-1.648	16.352	33.407	11.002	85.158	3.052	10.398	-15.946	
-1.653	16.352	33.381	11.066	85.162	3.175	10.399	-15.938	
-1.658	16.352	33.356	11.125	85.165	3.297	10.399	-15.934	
-1.662	16.352	33.334	11.182	85.170	3.418	10.399	-15.933	
-1.667	16.352	33.314	11.236	85.174	3.539	10.399	-15.934	
-1.672	16.352	33.296	11.289	85.180	3.658	10.399	-15.936	
-1.676	16.352	33.281	11.342	85.186	3.778	10.399	-15.938	
-1.681	16.352	33.267	11.394	85.194	3.896	10.398	-15.940	
-1.685	16.352	33.256	11.448	85.202	4.014	10.398	-15.942	
-1.690	16.352	33.246	11.501	85.212	4.132	10.397	-15.943	
-1.694	16.352	33.239	11.556	85.222	4.250	10.397	-15.944	
-1.698	16.352	33.233	11.610	85.233	4.367	10.396	-15.944	
-1.703	16.352	33.228	11.663	85.246	4.484	10.395	-15.943	
-1.707	16.352	33.224	11.717	85.259	4.601	10.394	-15.943	
-1.711	16.352	33.222	11.768	85.274	4.717	10.393	-15.943	
-1.715	16.352	33.221	11.818	85.289	4.833	10.393	-15.942	
-1.719	16.352	33.220	11.866	85.305	4.949	10.391	-15.942	
-1.723	16.352	33.220	11.911	85.322	5.064	10.390	-15.942	
-1.727	16.352	33.221	11.955	85.339	5.178	10.389	-15.941	
-1.731	16.352	33.222	11.997	85.358	5.292	10.388	-15.941	
-1.735	16.352	33.224	12.037	85.376	5.404	10.387	-15.941	
-1.738	16.352	33.225	12.075	85.396	5.514	10.386	-15.942	
-1.742	16.352	33.227	12.111	85.415	5.623	10.385	-15.942	
-1.746	16.352	33.229	12.144	85.435	5.730	10.384	-15.942	
-1.750	16.352	33.231	12.174	85.454	5.834	10.384	-15.942	
-1.753	16.352	33.232	12.199	85.473	5.936	10.383	-15.942	
-1.757	16.352	33.234	12.220	85.492	6.035	10.382	-15.942	
-1.760	16.352	33.235	12.238	85.510	6.131	10.382	-15.942	
-1.763	16.352	33.237	12.253	85.527	6.225	10.382	-15.941	
-1.767	16.352	33.238	12.266	85.542	6.316	10.382	-15.941	
-1.770	16.352	33.238	12.281	85.557	6.404	10.382	-15.941	
-1.773	16.352	33.239	12.299	85.570	6.490	10.382	-15.941	
-1.776	16.352	33.240	12.323	85.582	6.573	10.383	-15.941	
-1.780	16.352	33.240	12.352	85.592	6.655	10.384	-15.941	
-1.783	16.351	33.240	12.390	85.600	6.735	10.385	-15.941	
-1.786	16.351	33.240	12.436	85.607	6.814	10.387	-15.942	
-1.788	16.351	33.240	12.490	85.612	6.892	10.389	-15.942	
-1.791	16.351	33.239	12.550	85.616	6.970	10.391	-15.944	
-1.794	16.351	33.239	12.614	85.618	7.049	10.394	-15.945	
-1.797	16.351	33.239	12.679	85.620	7.129	10.397	-15.946	
-1.799	16.351	33.238	12.743	85.620	7.210	10.401	-15.947	
-1.802	16.351	33.238	12.803	85.620	7.294	10.405	-15.947	
-1.805	16.351	33.237	12.857	85.619	7.380	10.410	-15.946	
-1.807	16.351	33.236	12.903	85.618	7.469	10.415	-15.942	
-1.809	16.351	33.236	12.942	85.617	7.561	10.420	-15.936	
-1.812	16.351	33.235	12.974	85.617	7.657	10.427	-15.927	
-1.814	16.351	33.235	12.999	85.616	7.757	10.433	-15.916	
-1.816	16.351	33.234	13.019	85.617	7.860	10.440	-15.902	
-1.818	16.351	33.234	13.037	85.617	7.967	10.448	-15.886	
-1.820	16.351	33.233	13.055	85.619	8.078	10.456	-15.869	
-1.822	16.351	33.233	13.075	85.622	8.192	10.465	-15.852	
-1.824	16.351	33.233	13.097	85.625	8.310	10.474	-15.834	
-1.826	16.351	33.232	13.123	85.630	8.432	10.484	-15.817	
-1.828	16.351	33.232	13.154	85.635	8.556	10.494	-15.801	
-1.829	16.351	33.232	13.189	85.642	8.683	10.505	-15.787	
-1.831	16.351	33.231	13.228	85.648	8.814	10.517	-15.776	
-1.833	16.351	33.231	13.271	85.656	8.946	10.529	-15.767	
-1.834	16.351	33.231	13.316	85.663	9.082	10.541	-15.761	
-1.836	16.351	33.231	13.364	85.670	9.219	10.554	-15.757	
-1.837	16.351	33.230	13.415	85.677	9.359	10.567	-15.756	
-1.838	16.351	33.230	13.469	85.683	9.500	10.580	-15.756	
-1.840	16.351	33.230	13.524	85.688	9.644	10.594	-15.756	
-1.841	16.351	33.230	13.581	85.693	9.789	10.608	-15.758	
-1.842	16.351	33.230	13.639	85.696	9.936	10.623	-15.759	
-1.843	16.351	33.230	13.696	85.697	10.085	10.637	-15.760	
-1.844	16.351	33.230	13.752	85.698	10.235	10.652	-15.761	
-1.845	16.351	33.229	13.807	85.697	10.386	10.667	-15.762	
-1.846	16.351	33.229	13.858	85.695	10.539	10.683	-15.762	
-1.847	16.351	33.229	13.906	85.692	10.694	10.698	-15.762	
-1.848	16.351	33.229	13.951	85.689	10.849	10.713	-15.762	
-1.849	16.351	33.229	13.992	85.684	11.006	10.729	-15.761	
-1.849	16.351	33.229	14.029	85.680	11.164	10.744	-15.761	
-1.850	16.351	33.229	14.063	85.675	11.322	10.760	-15.761	
-1.851	16.351	33.228	14.096	85.671	11.481	10.775	-15.761	
-1.852	16.351	33.228	14.129	85.667	11.639	10.790	-15.760	
-1.852	16.351	33.228	14.163	85.664	11.797	10.805	-15.760	
-1.853	16.351	33.228	14.198	85.661	11.954	10.820	-15.760	
-1.854	16.351	33.228	14.235	85.658	12.109	10.834	-15.760	
-1.854	16.351	33.227	14.274	85.657	12.263	10.848	-15.760	
-1.855	16.351	33.227	14.315	85.655	12.413	10.862	-15.760	
-1.855	16.351	33.227	14.357	85.653	12.561	10.876	-15.760	
-1.856	16.351	33.227	14.400	85.652	12.706	10.889	-15.760	
-1.857	16.351	33.226	14.444	85.650	12.847	10.902	-15.760	
-1.857	16.351	33.226	14.489	85.647	12.984	10.915	-15.760	
-1.858	16.351	33.225	14.535	85.644	13.117	10.927	-15.760	
-1.858	16.351	33.225	14.580	85.640	13.246	10.939	-15.760	
-1.859	16.351	33.225	14.626	85.635	13.372	10.950	-15.760	
-1.859	16.351	33.224	14.670	85.628	13.493	10.961	-15.760	
-1.860	16.351	33.224	14.714	85.621	13.611	10.972	-15.760	
-1.861	16.351	33.223	14.756	85.612	13.725	10.982	-15.760	
-1.861	16.351	33.223	14.797	85.603	13.835	10.992	-15.760	
-1.862	16.351	33.222	14.837	85.593	13.942	11.001	-15.760	
-1.863	16.351	33.222	14.877	85.582	14.045	11.010	-15.760	
-1.863	16.351	33.222	14.915	85.571	14.146	11.018	-15.760	
-1.864	16.351	33.221	14.952	85.560	14.243	11.026	-15.760	
-1.865	16.351	33.221	14.987	85.548	14.338	11.034	-15.760	
-1.866	16.351	33.221	15.020	85.537	14.429	11.041	-15.760	
-1.867	16.351	33.221	15.050	85.526	14.519	11.048	-15.760	
-1.868	16.351	33.221	15.076	85.516	14.605	11.055	-15.760	
-1.869	16.351	33.221	15.101	85.507	14.690	11.062	-15.760	
-1.870	16.351	33.221	15.124	85.498	14.772	11.068	-15.760	
-1.871	16.351	33.221	15.147	85.490	14.852	11.074	-15.760	
-1.872	16.351	33.222	15.170	85.483	14.930	11.080	-15.760	
-1.873	16.351	33.222	15.197	85.477	15.007	11.086	-15.761	
-1.875	16.351	33.223	15.226	85.472	15.083	11.092	-15.761	
-1.876	16.351	33.224	15.260	85.468	15.157	11.098	-15.761	
-1.878	16.351	33.224	15.299	85.465	15.230	11.104	-15.760	
-1.879	16.351	33.226	15.341	85.463	15.303	11.109	-15.760	
-1.881	16.351	33.227	15.386	85.461	15.375	11.115	-15.759	
-1.882	16.351	33.228	15.434	85.460	15.447	11.122	-15.759	
-1.884	16.351	33.229	15.484	85.460	15.519	11.128	-15.758	
-1.886	16.351	33.230	15.535	85.460	15.591	11.134	-15.757	
-1.888	16.351	33.231	15.586	85.461	15.665	11.141	-15.756	
-1.890	16.351	33.232	15.638	85.461	15.739	11.148	-15.756	
-1.892	16.351	33.233	15.690	85.462	15.813	11.156	-15.757	
-1.894	16.351	33.234	15.742	85.463	15.890	11.164	-15.758	
-1.897	16.351	33.234	15.793	85.463	15.967	11.172	-15.761	
-1.899	16.351	33.234	15.843	85.463	16.046	11.180	-15.765	
-1.902	16.351	33.233	15.894	85.463	16.127	11.189	-15.769	
-1.904	16.351	33.232	15.946	85.462	16.210	11.199	-15.774	
-1.907	16.351	33.230	15.999	85.461	16.294	11.208	-15.778	
-1.910	16.351	33.228	16.054	85.459	16.380	11.219	-15.780	
-1.912	16.351	33.224	16.111	85.455	16.467	11.229	-15.778	
-1.915	16.351	33.219	16.172	85.451	16.556	11.240	-15.770	
-1.919	16.351	33.214	16.236	85.445	16.646	11.252	-15.754	
-1.922	16.351	33.207	16.304	85.439	16.738	11.264	-15.730	
-1.925	16.351	33.199	16.376	85.431	16.831	11.276	-15.696	
-1.928	16.351	33.190	16.452	85.421	16.925	11.288	-15.653	
-1.932	16.351	33.180	16.531	85.410	17.020	11.301	-15.605	
-1.935	16.351	33.169	16.613	85.398	17.116	11.315	-15.554	
-1.939	16.351	33.156	16.697	85.385	17.211	11.328	-15.506	
-1.943	16.351	33.142	16.782	85.371	17.307	11.342	-15.463	
-1.947	16.351	33.128	16.866	85.356	17.402	11.356	-15.429	
-1.950	16.351	33.112	16.948	85.339	17.497	11.370	-15.404	
-1.954	16.351	33.096	17.028	85.323	17.590	11.384	-15.388	
-1.959	16.351	33.079	17.106	85.306	17.682	11.398	-15.380	
-1.963	16.351	33.062	17.179	85.288	17.771	11.412	-15.378	
-1.967	16.351	33.045	17.249	85.271	17.858	11.426	-15.380	
-1.971	16.350	33.027	17.316	85.254	17.942	11.439	-15.384	
-1.976	16.350	33.010	17.380	85.237	18.022	11.453	-15.389	
-1.980	16.350	32.992	17.441	85.221	18.098	11.467	-15.393	
-1.985	16.350	32.976	17.499	85.205	18.169	11.480	-15.397	
-1.989	16.350	32.959	17.556	85.190	18.235	11.493	-15.400	
-1.994	16.350	32.944	17.610	85.176	18.296	11.506	-15.401	
-1.999	16.350	32.929	17.663	85.163	18.351	11.518	-15.402	
-2.004	16.350	32.916	17.714	85.150	18.401	11.530	-15.402	
-2.008	16.350	32.903	17.764	85.138	18.446	11.542	-15.401	
-2.013	16.350	32.892	17.813	85.127	18.486	11.553	-15.400	
-2.018	16.350	32.882	17.861	85.117	18.521	11.564	-15.400	
-2.023	16.350	32.873	17.909	85.107	18.552	11.575	-15.399	
-2.028	16.350	32.865	17.958	85.098	18.581	11.585	-15.398	
-2.033	16.350	32.858	18.008	85.089	18.607	11.595	-15.398	
-2.038	16.350	32.852	18.061	85.080	18.632	11.605	-15.398	
-2.044	16.350	32.848	18.116	85.071	18.658	11.614	-15.398	
-2.049	16.350	32.844	18.175	85.061	18.684	11.623	-15.398	
-2.054	16.350	32.842	18.235	85.050	18.713	11.631	-15.398	
-2.059	16.350	32.840	18.297	85.039	18.746	11.640	-15.398	
-2.064	16.350	32.839	18.359	85.026	18.784	11.648	-15.398	
-2.069	16.350	32.838	18.420	85.012	18.827	11.655	-15.398	
-2.075	16.350	32.838	18.477	84.996	18.877	11.663	-15.398	
-2.080	16.350	32.838	18.530	84.979	18.935	11.670	-15.398	
-2.085	16.349	32.839	18.578	84.960	19.000	11.677	-15.398	
-2.090	16.349	32.840	18.618	84.940	19.074	11.684	-15.398	
-2.095	16.349	32.841	18.652	84.918	19.156	11.691	-15.398	
-2.100	16.349	32.843	18.678	84.895	19.246	11.697	-15.398	
-2.106	16.349	32.844	18.697	84.872	19.345	11.704	-15.398	
-2.111	16.349	32.846	18.709	84.848	19.451	11.710	-15.398	
-2.116	16.349	32.848	18.717	84.823	19.564	11.716	-15.398	
-2.121	16.349	32.849	18.719	84.800	19.684	11.722	-15.398	
-2.126	16.349	32.851	18.718	84.776	19.809	11.728	-15.398	
-2.131	16.349	32.852	18.714	84.754	19.939	11.735	-15.398	
-2.136	16.349	32.853	18.709	84.734	20.072	11.741	-15.398	
-2.141	16.349	32.854	18.702	84.715	20.209	11.747	-15.398	
-2.145	16.349	32.855	18.695	84.698	20.347	11.753	-15.398	
-2.150	16.349	32.856	18.688	84.683	20.485	11.759	-15.398	
-2.155	16.349	32.857	18.681	84.670	20.623	11.766	-15.398	
-2.160	16.349	32.857	18.676	84.659	20.760	11.772	-15.398	
-2.164	16.349	32.858	18.672	84.650	20.895	11.779	-15.398	
-2.169	16.349	32.858	18.671	84.644	21.027	11.785	-15.398	
-2.173	16.349	32.858	18.673	84.639	21.156	11.792	-15.398	
-2.178	16.349	32.858	18.678	84.636	21.281	11.799	-15.398	
-2.182	16.349	32.857	18.688	84.634	21.403	11.806	-15.398	
-2.186	16.349	32.857	18.703	84.633	21.521	11.813	-15.398	
-2.190	16.349	32.856	18.724	84.633	21.635	11.821	-15.398	
-2.195	16.349	32.855	18.749	84.633	21.746	11.828	-15.398	
-2.199	16.349	32.854	18.780	84.634	21.853	11.836	-15.398	
-2.203	16.349	32.853	18.814	84.635	21.957	11.844	-15.398	
-2.207	16.349	32.851	18.851	84.635	22.059	11.853	-15.398	
-2.210	16.349	32.850	18.889	84.634	22.158	11.861	-15.398	
-2.214	16.349	32.848	18.925	84.632	22.255	11.870	-15.398	
-2.218	16.349	32.846	18.959	84.629	22.350	11.879	-15.398	
-2.221	16.349	32.844	18.988	84.624	22.445	11.888	-15.398	
-2.225	16.349	32.842	19.013	84.617	22.538	11.897	-15.398	
-2.228	16.349	32.840	19.033	84.608	22.632	11.907	-15.398	
-2.232	16.349	32.838	19.048	84.596	22.725	11.916	-15.398	
-2.235	16.349	32.836	19.060	84.582	22.820	11.926	-15.398	
-2.238	16.349	32.834	19.069	84.565	22.915	11.936	-15.398	
-2.241	16.349	32.833	19.076	84.545	23.012	11.947	-15.398	
-2.245	16.349	32.832	19.083	84.522	23.111	11.957	-15.397	
-2.248	16.349	32.831	19.089	84.497	23.213	11.967	-15.396	
-2.250	16.349	32.831	19.096	84.468	23.316	11.977	-15.396	
-2.253	16.349	32.832	19.103	84.438	23.423	11.988	-15.395	
-2.256	16.349	32.834	19.110	84.405	23.532	11.998	-15.394	
-2.259	16.348	32.836	19.116	84.370	23.645	12.009	-15.394	
-2.261	16.348	32.839	19.120	84.333	23.760	12.019	-15.395	
-2.264	16.348	32.844	19.123	84.294	23.879	12.029	-15.396	
-2.267	16.348	32.850	19.122	84.254	24.000	12.039	-15.398	
-2.269	16.348	32.856	19.118	84.213	24.125	12.049	-15.402	
-2.271	16.348	32.865	19.112	84.171	24.251	12.058	-15.406	
-2.274	16.348	32.875	19.105	84.128	24.380	12.068	-15.410	
-2.276	16.348	32.886	19.096	84.085	24.510	12.077	-15.414	
-2.278	16.348	32.898	19.087	84.041	24.641	12.086	-15.416	
-2.280	16.348	32.912	19.079	83.998	24.772	12.094	-15.414	
-2.282	16.348	32.927	19.072	83.956	24.902	12.102	-15.407	
-2.284	16.348	32.943	19.065	83.914	25.032	12.110	-15.394	
-2.286	16.348	32.961	19.060	83.873	25.159	12.118	-15.373	
-2.288	16.348	32.979	19.054	83.834	25.283	12.125	-15.344	
-2.290	16.348	32.998	19.049	83.796	25.404	12.132	-15.308	
-2.292	16.348	33.017	19.043	83.759	25.520	12.138	-15.268	
-2.294	16.348	33.036	19.036	83.725	25.631	12.144	-15.227	
-2.296	16.348	33.056	19.029	83.692	25.737	12.150	-15.191	
-2.297	16.348	33.075	19.020	83.662	25.836	12.155	-15.163	
-2.299	16.348	33.093	19.012	83.634	25.928	12.160	-15.149	
-2.301	16.348	33.111	19.004	83.608	26.014	12.165	-15.149	
-2.303	16.348	33.128	18.997	83.584	26.091	12.169	-15.164	
-2.304	16.348	33.144	18.995	83.563	26.162	12.174	-15.191	
-2.306	16.348	33.158	18.997	83.543	26.225	12.178	-15.228	
-2.308	16.348	33.172	19.006	83.526	26.280	12.182	-15.268	
-2.309	16.348	33.184	19.024	83.510	26.330	12.185	-15.308	
-2.311	16.348	33.194	19.052	83.495	26.372	12.189	-15.344	
-2.313	16.348	33.203	19.091	83.482	26.410	12.193	-15.372	
-2.315	16.348	33.211	19.140	83.470	26.443	12.197	-15.393	
-2.316	16.348	33.217	19.199	83.457	26.473	12.200	-15.405	
-2.318	16.348	33.222	19.265	83.445	26.500	12.204	-15.411	
-2.320	16.348	33.225	19.337	83.432	26.527	12.209	-15.413	
-2.322	16.349	33.227	19.413	83.419	26.554	12.213	-15.411	
-2.324	16.349	33.228	19.491	83.405	26.583	12.218	-15.408	
-2.325	16.349	33.227	19.569	83.389	26.614	12.223	-15.405	
-2.327	16.349	33.226	19.645	83.373	26.650	12.228	-15.403	
-2.329	16.349	33.223	19.719	83.355	26.691	12.234	-15.403	
-2.331	16.349	33.219	19.790	83.336	26.737	12.240	-15.404	
-2.333	16.349	33.215	19.858	83.316	26.790	12.247	-15.407	
-2.335	16.349	33.209	19.923	83.295	26.850	12.254	-15.409	
-2.338	16.349	33.203	19.986	83.273	26.917	12.262	-15.410	
-2.340	16.349	33.196	20.046	83.250	26.992	12.270	-15.408	
-2.342	16.349	33.188	20.104	83.226	27.075	12.279	-15.401	
-2.344	16.349	33.179	20.161	83.203	27.165	12.289	-15.387	
-2.347	16.349	33.171	20.215	83.179	27.262	12.299	-15.366	
-2.349	16.348	33.161	20.269	83.154	27.367	12.310	-15.336	
-2.352	16.348	33.152	20.321	83.130	27.479	12.321	-15.301	
-2.354	16.348	33.142	20.371	83.105	27.598	12.333	-15.260	
-2.357	16.348	33.133	20.420	83.080	27.723	12.345	-15.219	
-2.360	16.348	33.123	20.467	83.055	27.855	12.358	-15.180	
-2.362	16.348	33.114	20.513	83.029	27.992	12.372	-15.148	
-2.365	16.348	33.105	20.558	83.003	28.134	12.386	-15.129	
-2.368	16.348	33.097	20.601	82.976	28.282	12.401	-15.124	
-2.371	16.348	33.090	20.641	82.949	28.435	12.416	-15.137	
-2.374	16.348	33.084	20.679	82.921	28.592	12.432	-15.164	
-2.377	16.348	33.078	20.713	82.892	28.753	12.448	-15.203	
-2.380	16.348	33.074	20.743	82.863	28.918	12.465	-15.245	
-2.384	16.348	33.071	20.768	82.833	29.086	12.482	-15.284	
-2.387	16.348	33.069	20.789	82.802	29.258	12.499	-15.313	
-2.390	16.348	33.069	20.807	82.770	29.432	12.517	-15.325	
-2.394	16.348	33.070	20.823	82.738	29.608	12.535	-15.320	
-2.397	16.348	33.072	20.838	82.704	29.786	12.553	-15.296	
-2.401	16.348	33.075	20.854	82.670	29.965	12.571	-15.259	
-2.405	16.348	33.080	20.872	82.636	30.145	12.589	-15.212	
-2.408	16.348	33.086	20.893	82.600	30.326	12.608	-15.163	
-2.412	16.348	33.092	20.917	82.564	30.506	12.626	-15.117	
-2.416	16.348	33.100	20.945	82.527	30.686	12.644	-15.078	
-2.420	16.348	33.108	20.977	82.489	30.865	12.663	-15.048	
-2.424	16.348	33.116	21.011	82.451	31.043	12.681	-15.028	
-2.428	16.348	33.125	21.048	82.412	31.219	12.699	-15.016	
-2.432	16.347	33.134	21.086	82.372	31.394	12.717	-15.012	
-2.436	16.347	33.142	21.125	82.332	31.566	12.735	-15.013	
-2.440	16.347	33.151	21.164	82.290	31.737	12.753	-15.017	
-2.444	16.347	33.159	21.203	82.248	31.904	12.770	-15.022	
-2.448	16.347	33.166	21.241	82.205	32.070	12.788	-15.028	
-2.452	16.347	33.172	21.279	82.161	32.232	12.804	-15.032	
-2.457	16.347	33.178	21.316	82.116	32.391	12.821	-15.036	
-2.461	16.347	33.182	21.351	82.071	32.548	12.837	-15.038	
-2.465	16.347	33.185	21.384	82.024	32.702	12.853	-15.039	
-2.469	16.347	33.187	21.414	81.977	32.854	12.868	-15.039	
-2.474	16.347	33.187	21.440	81.930	33.003	12.883	-15.039	
-2.478	16.347	33.186	21.463	81.882	33.150	12.898	-15.038	
-2.482	16.347	33.183	21.482	81.835	33.294	12.912	-15.037	
-2.487	16.347	33.179	21.500	81.787	33.437	12.925	-15.036	
-2.491	16.347	33.172	21.517	81.740	33.577	12.938	-15.035	
-2.496	16.347	33.164	21.536	81.694	33.716	12.950	-15.034	
-2.500	16.347	33.154	21.557	81.648	33.853	12.962	-15.034	
-2.504	16.347	33.142	21.583	81.602	33.988	12.974	-15.034	
-2.509	16.347	33.129	21.615	81.557	34.121	12.985	-15.034	
-2.513	16.346	33.114	21.655	81.513	34.253	12.995	-15.034	
-2.517	16.346	33.098	21.701	81.469	34.382	13.005	-15.034	
-2.522	16.346	33.081	21.756	81.425	34.511	13.015	-15.034	
-2.526	16.346	33.063	21.816	81.382	34.638	13.024	-15.034	
-2.530	16.346	33.044	21.882	81.339	34.765	13.032	-15.035	
-2.535	16.346	33.024	21.951	81.295	34.891	13.040	-15.035	
-2.539	16.346	33.005	22.023	81.252	35.016	13.048	-15.035	
-2.543	16.346	32.986	22.096	81.209	35.143	13.056	-15.035	
-2.547	16.347	32.967	22.168	81.166	35.269	13.063	-15.035	
-2.551	16.347	32.949	22.239	81.122	35.397	13.070	-15.035	
-2.555	16.347	32.932	22.307	81.079	35.526	13.076	-15.035	
-2.559	16.347	32.916	22.371	81.035	35.657	13.083	-15.035	
-2.563	16.347	32.901	22.432	80.990	35.790	13.089	-15.035	
-2.567	16.347	32.888	22.490	80.945	35.925	13.095	-15.035	
-2.571	16.347	32.876	22.546	80.900	36.062	13.101	-15.035	
-2.575	16.347	32.865	22.599	80.854	36.203	13.106	-15.035	
-2.578	16.347	32.857	22.652	80.807	36.346	13.112	-15.035	
-2.582	16.347	32.849	22.705	80.760	36.492	13.118	-15.035	
-2.585	16.347	32.843	22.758	80.712	36.641	13.123	-15.035	
-2.589	16.347	32.838	22.812	80.663	36.793	13.129	-15.035	
-2.592	16.347	32.834	22.867	80.614	36.948	13.135	-15.035	
-2.595	16.347	32.831	22.923	80.564	37.106	13.141	-15.035	
-2.599	16.347	32.828	22.981	80.512	37.267	13.147	-15.034	
-2.602	16.347	32.827	23.040	80.460	37.430	13.153	-15.034	
-2.604	16.347	32.825	23.099	80.407	37.596	13.159	-15.034	
-2.607	16.347	32.824	23.160	80.353	37.764	13.165	-15.034	
-2.610	16.347	32.822	23.221	80.299	37.934	13.172	-15.034	
-2.613	16.347	32.820	23.281	80.243	38.105	13.179	-15.034	
-2.615	16.347	32.818	23.341	80.186	38.278	13.186	-15.034	
-2.617	16.347	32.815	23.400	80.128	38.451	13.193	-15.034	
-2.619	16.347	32.811	23.458	80.069	38.626	13.200	-15.034	
-2.621	16.347	32.805	23.514	80.009	38.800	13.208	-15.034	
-2.623	16.347	32.799	23.568	79.948	38.975	13.215	-15.034	
-2.625	16.347	32.791	23.619	79.885	39.150	13.223	-15.034	
-2.627	16.347	32.782	23.669	79.822	39.325	13.232	-15.034	
-2.628	16.347	32.772	23.716	79.758	39.500	13.240	-15.034	
-2.629	16.347	32.760	23.762	79.692	39.674	13.249	-15.034	
-2.630	16.347	32.746	23.807	79.626	39.849	13.257	-15.034	
-2.631	16.347	32.731	23.852	79.559	40.023	13.266	-15.034	
-2.631	16.347	32.714	23.898	79.491	40.198	13.275	-15.034	
-2.632	16.347	32.696	23.945	79.423	40.373	13.285	-15.034	
-2.632	16.347	32.677	23.995	79.354	40.548	13.294	-15.034	
-2.632	16.347	32.657	24.049	79.284	40.725	13.303	-15.034	
-2.632	16.347	32.635	24.108	79.214	40.904	13.313	-15.034	
-2.631	16.347	32.612	24.172	79.143	41.084	13.322	-15.034	
-2.630	16.347	32.589	24.242	79.072	41.267	13.332	-15.034	
-2.629	16.346	32.564	24.317	79.000	41.453	13.341	-15.034	
-2.628	16.346	32.539	24.399	78.927	41.643	13.351	-15.034	
-2.627	16.346	32.513	24.486	78.852	41.837	13.360	-15.034	
-2.625	16.346	32.486	24.578	78.777	42.036	13.370	-15.034	
-2.623	16.346	32.459	24.674	78.700	42.240	13.379	-15.034	
-2.621	16.346	32.431	24.774	78.622	42.449	13.388	-15.034	
-2.618	16.346	32.403	24.877	78.541	42.665	13.396	-15.034	
-2.615	16.346	32.375	24.982	78.458	42.887	13.405	-15.033	
-2.612	16.346	32.346	25.088	78.372	43.116	13.413	-15.033	
-2.608	16.346	32.317	25.194	78.283	43.352	13.420	-15.033	
-2.604	16.346	32.288	25.299	78.191	43.596	13.428	-15.033	
-2.600	16.346	32.259	25.403	78.096	43.848	13.435	-15.033	
-2.595	16.346	32.230	25.505	77.997	44.107	13.441	-15.033	
-2.590	16.346	32.201	25.605	77.895	44.375	13.447	-15.033	
-2.585	16.346	32.171	25.703	77.789	44.651	13.452	-15.034	
-2.579	16.346	32.142	25.802	77.680	44.936	13.457	-15.036	
-2.573	16.347	32.112	25.901	77.566	45.231	13.461	-15.037	
-2.567	16.347	32.083	26.004	77.449	45.535	13.464	-15.039	
-2.560	16.348	32.052	26.112	77.327	45.849	13.467	-15.041	
-2.553	16.348	32.022	26.227	77.201	46.173	13.469	-15.043	
-2.545	16.349	31.990	26.352	77.071	46.509	13.470	-15.044	
-2.537	16.350	31.957	26.487	76.936	46.856	13.470	-15.043	
-2.529	16.350	31.923	26.636	76.795	47.215	13.469	-15.042	
-2.520	16.351	31.887	26.797	76.649	47.589	13.468	-15.039	
-2.511	16.352	31.848	26.973	76.497	47.976	13.466	-15.035	
-2.501	16.352	31.806	27.163	76.339	48.379	13.462	-15.031	
-2.491	16.352	31.760	27.366	76.173	48.798	13.458	-15.028	
-2.480	16.352	31.710	27.582	75.998	49.235	13.453	-15.026	
-2.469	16.352	31.654	27.811	75.815	49.693	13.447	-15.023	
-2.458	16.352	31.592	28.051	75.621	50.172	13.440	-15.021	
-2.446	16.351	31.523	28.303	75.415	50.674	13.432	-15.018	
-2.433	16.350	31.444	28.567	75.196	51.202	13.423	-15.015	
-2.420	16.348	31.356	28.844	74.961	51.758	13.413	-15.013	
-2.407	16.346	31.255	29.134	74.709	52.344	13.402	-15.013	
-2.393	16.343	31.141	29.439	74.436	52.963	13.390	-15.016	
-2.378	16.340	31.012	29.760	74.139	53.616	13.377	-15.025	
-2.364	16.337	30.866	30.101	73.816	54.307	13.363	-15.041	
-2.348	16.334	30.700	30.462	73.463	55.039	13.349	-15.066	
-2.332	16.330	30.514	30.849	73.074	55.812	13.333	-15.100	
-2.316	16.327	30.303	31.264	72.647	56.631	13.317	-15.141	
-2.299	16.324	30.067	31.712	72.175	57.497	13.300	-15.188	
-2.282	16.322	29.803	32.195	71.654	58.413	13.282	-15.238	
-2.264	16.321	29.509	32.718	71.079	59.381	13.263	-15.285	
-2.245	16.322	29.182	33.282	70.443	60.403	13.244	-15.326	
-2.226	16.324	28.821	33.891	69.742	61.480	13.224	-15.359	
-2.207	16.329	28.423	34.544	68.970	62.615	13.203	-15.384	
-2.187	16.336	27.987	35.242	68.122	63.810	13.182	-15.400	
-2.167	16.347	27.511	35.984	67.192	65.064	13.160	-15.411	
-2.146	16.361	26.992	36.767	66.175	66.380	13.137	-15.417	
-2.124	16.380	26.431	37.589	65.067	67.758	13.114	-15.421	
-2.102	16.403	25.825	38.445	63.864	69.198	13.091	-15.423	
-2.080	16.431	25.174	39.332	62.562	70.701	13.067	-15.425	
-2.056	16.464	24.477	40.246	61.159	72.267	13.042	-15.424	
-2.033	16.502	23.733	41.183	59.651	73.897	13.017	-15.421	
-2.009	16.545	22.942	42.138	58.037	75.589	12.992	-15.412	
-1.984	16.594	22.104	43.109	56.316	77.344	12.966	-15.393	
-1.959	16.648	21.218	44.092	54.487	79.162	12.940	-15.363	
-1.933	16.707	20.285	45.083	52.549	81.042	12.913	-15.316	
-1.907	16.772	19.304	46.080	50.501	82.985	12.886	-15.251	
-1.881	16.842	18.276	47.082	48.345	84.990	12.858	-15.168	
-1.853	16.918	17.200	48.089	46.079	87.058	12.830	-15.064	
